digraph Tree {
0 [label="X[22] <= 2.5000\ngini = 0.165389491503\nsamples = 2968", shape="box"] ;
1 [label="X[33] <= 1.5000\ngini = 0.0604380792772\nsamples = 2693", shape="box"] ;
0 -> 1 ;
2 [label="X[13] <= 1.5000\ngini = 0.0325997374928\nsamples = 2534", shape="box"] ;
1 -> 2 ;
3 [label="X[17] <= 2.5000\ngini = 0.0297854261699\nsamples = 2513", shape="box"] ;
2 -> 3 ;
4 [label="X[30] <= 5.5000\ngini = 0.0240329123688\nsamples = 2384", shape="box"] ;
3 -> 4 ;
5 [label="X[32] <= 1.5000\ngini = 0.0210225939976\nsamples = 2259", shape="box"] ;
4 -> 5 ;
6 [label="X[21] <= 1.5000\ngini = 0.0143689404432\nsamples = 1520", shape="box"] ;
5 -> 6 ;
7 [label="X[0] <= 1.5000\ngini = 0.014444409451\nsamples = 1512", shape="box"] ;
6 -> 7 ;
8 [label="gini = 0.0145\nsamples = 1509\nvalue = [ 1498.    11.]", shape="box"] ;
7 -> 8 ;
9 [label="gini = 0.0000\nsamples = 3\nvalue = [ 3.  0.]", shape="box"] ;
7 -> 9 ;
10 [label="gini = 0.0000\nsamples = 8\nvalue = [ 8.  0.]", shape="box"] ;
6 -> 10 ;
11 [label="X[21] <= 1.5000\ngini = 0.0345637688351\nsamples = 739", shape="box"] ;
5 -> 11 ;
12 [label="X[28] <= 3.5000\ngini = 0.0410561914672\nsamples = 620", shape="box"] ;
11 -> 12 ;
13 [label="X[30] <= 1.5000\ngini = 0.04724502287\nsamples = 537", shape="box"] ;
12 -> 13 ;
14 [label="X[29] <= 4.0000\ngini = 0.0867768595041\nsamples = 66", shape="box"] ;
13 -> 14 ;
15 [label="X[24] <= 2.5000\ngini = 0.0907029478458\nsamples = 63", shape="box"] ;
14 -> 15 ;
16 [label="gini = 0.0921\nsamples = 62\nvalue = [ 59.   3.]", shape="box"] ;
15 -> 16 ;
17 [label="gini = 0.0000\nsamples = 1\nvalue = [ 1.  0.]", shape="box"] ;
15 -> 17 ;
18 [label="gini = 0.0000\nsamples = 3\nvalue = [ 3.  0.]", shape="box"] ;
14 -> 18 ;
19 [label="X[28] <= 1.5000\ngini = 0.0415612984074\nsamples = 471", shape="box"] ;
13 -> 19 ;
20 [label="X[27] <= 2.0000\ngini = 0.0165277777778\nsamples = 120", shape="box"] ;
19 -> 20 ;
21 [label="X[23] <= 1.5000\ngini = 0.0270219553387\nsamples = 73", shape="box"] ;
20 -> 21 ;
22 [label="gini = 0.0274\nsamples = 72\nvalue = [ 71.   1.]", shape="box"] ;
21 -> 22 ;
23 [label="gini = 0.0000\nsamples = 1\nvalue = [ 1.  0.]", shape="box"] ;
21 -> 23 ;
24 [label="gini = 0.0000\nsamples = 47\nvalue = [ 47.   0.]", shape="box"] ;
20 -> 24 ;
25 [label="X[29] <= 4.5000\ngini = 0.0499671268902\nsamples = 351", shape="box"] ;
19 -> 25 ;
26 [label="X[29] <= 1.5000\ngini = 0.0441415192508\nsamples = 310", shape="box"] ;
25 -> 26 ;
27 [label="X[24] <= 2.5000\ngini = 0.110726643599\nsamples = 17", shape="box"] ;
26 -> 27 ;
28 [label="gini = 0.1172\nsamples = 16\nvalue = [ 15.   1.]", shape="box"] ;
27 -> 28 ;
29 [label="gini = 0.0000\nsamples = 1\nvalue = [ 1.  0.]", shape="box"] ;
27 -> 29 ;
30 [label="X[26] <= 1.5000\ngini = 0.0401169495277\nsamples = 293", shape="box"] ;
26 -> 30 ;
31 [label="X[30] <= 4.5000\ngini = 0.0416478044364\nsamples = 282", shape="box"] ;
30 -> 31 ;
32 [label="X[30] <= 2.5000\ngini = 0.0422338388282\nsamples = 278", shape="box"] ;
31 -> 32 ;
33 [label="X[1] <= 2.0000\ngini = 0.0470314994919\nsamples = 83", shape="box"] ;
32 -> 33 ;
34 [label="gini = 0.0476\nsamples = 82\nvalue = [ 80.   2.]", shape="box"] ;
33 -> 34 ;
35 [label="gini = 0.0000\nsamples = 1\nvalue = [ 1.  0.]", shape="box"] ;
33 -> 35 ;
36 [label="X[27] <= 1.5000\ngini = 0.0401840894149\nsamples = 195", shape="box"] ;
32 -> 36 ;
37 [label="gini = 0.0448\nsamples = 131\nvalue = [ 128.    3.]", shape="box"] ;
36 -> 37 ;
38 [label="gini = 0.0308\nsamples = 64\nvalue = [ 63.   1.]", shape="box"] ;
36 -> 38 ;
39 [label="gini = 0.0000\nsamples = 4\nvalue = [ 4.  0.]", shape="box"] ;
31 -> 39 ;
40 [label="gini = 0.0000\nsamples = 11\nvalue = [ 11.   0.]", shape="box"] ;
30 -> 40 ;
41 [label="X[25] <= 1.5000\ngini = 0.0928019036288\nsamples = 41", shape="box"] ;
25 -> 41 ;
42 [label="gini = 0.0950\nsamples = 40\nvalue = [ 38.   2.]", shape="box"] ;
41 -> 42 ;
43 [label="gini = 0.0000\nsamples = 1\nvalue = [ 1.  0.]", shape="box"] ;
41 -> 43 ;
44 [label="gini = 0.0000\nsamples = 83\nvalue = [ 83.   0.]", shape="box"] ;
12 -> 44 ;
45 [label="gini = 0.0000\nsamples = 119\nvalue = [ 119.    0.]", shape="box"] ;
11 -> 45 ;
46 [label="X[27] <= 2.5000\ngini = 0.0768\nsamples = 125", shape="box"] ;
4 -> 46 ;
47 [label="gini = 0.1454\nsamples = 38\nvalue = [ 35.   3.]", shape="box"] ;
46 -> 47 ;
48 [label="X[29] <= 2.0000\ngini = 0.0449200687013\nsamples = 87", shape="box"] ;
46 -> 48 ;
49 [label="gini = 0.0278\nsamples = 71\nvalue = [ 70.   1.]", shape="box"] ;
48 -> 49 ;
50 [label="gini = 0.1172\nsamples = 16\nvalue = [ 15.   1.]", shape="box"] ;
48 -> 50 ;
51 [label="X[16] <= 1.5000\ngini = 0.129799891833\nsamples = 129", shape="box"] ;
3 -> 51 ;
52 [label="X[26] <= 1.5000\ngini = 0.345679012346\nsamples = 9", shape="box"] ;
51 -> 52 ;
53 [label="X[22] <= 1.5000\ngini = 0.244897959184\nsamples = 7", shape="box"] ;
52 -> 53 ;
54 [label="gini = 0.0000\nsamples = 2\nvalue = [ 2.  0.]", shape="box"] ;
53 -> 54 ;
55 [label="X[32] <= 1.5000\ngini = 0.32\nsamples = 5", shape="box"] ;
53 -> 55 ;
56 [label="gini = 0.0000\nsamples = 1\nvalue = [ 1.  0.]", shape="box"] ;
55 -> 56 ;
57 [label="gini = 0.3750\nsamples = 4\nvalue = [ 3.  1.]", shape="box"] ;
55 -> 57 ;
58 [label="X[25] <= 1.5000\ngini = 0.5\nsamples = 2", shape="box"] ;
52 -> 58 ;
59 [label="gini = 0.0000\nsamples = 1\nvalue = [ 0.  1.]", shape="box"] ;
58 -> 59 ;
60 [label="gini = 0.0000\nsamples = 1\nvalue = [ 1.  0.]", shape="box"] ;
58 -> 60 ;
61 [label="X[30] <= 3.0000\ngini = 0.109861111111\nsamples = 120", shape="box"] ;
51 -> 61 ;
62 [label="gini = 0.0000\nsamples = 19\nvalue = [ 19.   0.]", shape="box"] ;
61 -> 62 ;
63 [label="X[20] <= 1.5000\ngini = 0.129006960102\nsamples = 101", shape="box"] ;
61 -> 63 ;
64 [label="X[29] <= 4.5000\ngini = 0.144931195556\nsamples = 89", shape="box"] ;
63 -> 64 ;
65 [label="X[27] <= 2.5000\ngini = 0.132653061224\nsamples = 84", shape="box"] ;
64 -> 65 ;
66 [label="X[30] <= 4.5000\ngini = 0.0849382716049\nsamples = 45", shape="box"] ;
65 -> 66 ;
67 [label="X[26] <= 1.5000\ngini = 0.113865932048\nsamples = 33", shape="box"] ;
66 -> 67 ;
68 [label="X[15] <= 1.5000\ngini = 0.152777777778\nsamples = 24", shape="box"] ;
67 -> 68 ;
69 [label="X[0] <= 1.5000\ngini = 0.158790170132\nsamples = 23", shape="box"] ;
68 -> 69 ;
70 [label="gini = 0.1653\nsamples = 22\nvalue = [ 20.   2.]", shape="box"] ;
69 -> 70 ;
71 [label="gini = 0.0000\nsamples = 1\nvalue = [ 1.  0.]", shape="box"] ;
69 -> 71 ;
72 [label="gini = 0.0000\nsamples = 1\nvalue = [ 1.  0.]", shape="box"] ;
68 -> 72 ;
73 [label="gini = 0.0000\nsamples = 9\nvalue = [ 9.  0.]", shape="box"] ;
67 -> 73 ;
74 [label="gini = 0.0000\nsamples = 12\nvalue = [ 12.   0.]", shape="box"] ;
66 -> 74 ;
75 [label="X[23] <= 1.5000\ngini = 0.184089414859\nsamples = 39", shape="box"] ;
65 -> 75 ;
76 [label="X[26] <= 1.5000\ngini = 0.165289256198\nsamples = 33", shape="box"] ;
75 -> 76 ;
77 [label="gini = 0.1975\nsamples = 27\nvalue = [ 24.   3.]", shape="box"] ;
76 -> 77 ;
78 [label="gini = 0.0000\nsamples = 6\nvalue = [ 6.  0.]", shape="box"] ;
76 -> 78 ;
79 [label="X[25] <= 2.5000\ngini = 0.277777777778\nsamples = 6", shape="box"] ;
75 -> 79 ;
80 [label="X[29] <= 2.0000\ngini = 0.375\nsamples = 4", shape="box"] ;
79 -> 80 ;
81 [label="gini = 0.4444\nsamples = 3\nvalue = [ 2.  1.]", shape="box"] ;
80 -> 81 ;
82 [label="gini = 0.0000\nsamples = 1\nvalue = [ 1.  0.]", shape="box"] ;
80 -> 82 ;
83 [label="gini = 0.0000\nsamples = 2\nvalue = [ 2.  0.]", shape="box"] ;
79 -> 83 ;
84 [label="X[24] <= 2.5000\ngini = 0.32\nsamples = 5", shape="box"] ;
64 -> 84 ;
85 [label="gini = 0.0000\nsamples = 4\nvalue = [ 4.  0.]", shape="box"] ;
84 -> 85 ;
86 [label="gini = 0.0000\nsamples = 1\nvalue = [ 0.  1.]", shape="box"] ;
84 -> 86 ;
87 [label="gini = 0.0000\nsamples = 12\nvalue = [ 12.   0.]", shape="box"] ;
63 -> 87 ;
88 [label="X[28] <= 3.5000\ngini = 0.308390022676\nsamples = 21", shape="box"] ;
2 -> 88 ;
89 [label="X[23] <= 1.5000\ngini = 0.265927977839\nsamples = 19", shape="box"] ;
88 -> 89 ;
90 [label="gini = 0.0000\nsamples = 8\nvalue = [ 8.  0.]", shape="box"] ;
89 -> 90 ;
91 [label="X[29] <= 3.5000\ngini = 0.396694214876\nsamples = 11", shape="box"] ;
89 -> 91 ;
92 [label="X[5] <= 1.5000\ngini = 0.5\nsamples = 4", shape="box"] ;
91 -> 92 ;
93 [label="X[17] <= 1.5000\ngini = 0.444444444444\nsamples = 3", shape="box"] ;
92 -> 93 ;
94 [label="gini = 0.5000\nsamples = 2\nvalue = [ 1.  1.]", shape="box"] ;
93 -> 94 ;
95 [label="gini = 0.0000\nsamples = 1\nvalue = [ 0.  1.]", shape="box"] ;
93 -> 95 ;
96 [label="gini = 0.0000\nsamples = 1\nvalue = [ 1.  0.]", shape="box"] ;
92 -> 96 ;
97 [label="X[26] <= 2.5000\ngini = 0.244897959184\nsamples = 7", shape="box"] ;
91 -> 97 ;
98 [label="X[21] <= 3.0000\ngini = 0.375\nsamples = 4", shape="box"] ;
97 -> 98 ;
99 [label="gini = 0.4444\nsamples = 3\nvalue = [ 2.  1.]", shape="box"] ;
98 -> 99 ;
100 [label="gini = 0.0000\nsamples = 1\nvalue = [ 1.  0.]", shape="box"] ;
98 -> 100 ;
101 [label="gini = 0.0000\nsamples = 3\nvalue = [ 3.  0.]", shape="box"] ;
97 -> 101 ;
102 [label="X[14] <= 1.5000\ngini = 0.5\nsamples = 2", shape="box"] ;
88 -> 102 ;
103 [label="gini = 0.0000\nsamples = 1\nvalue = [ 1.  0.]", shape="box"] ;
102 -> 103 ;
104 [label="gini = 0.0000\nsamples = 1\nvalue = [ 0.  1.]", shape="box"] ;
102 -> 104 ;
105 [label="X[16] <= 2.5000\ngini = 0.388750444998\nsamples = 159", shape="box"] ;
1 -> 105 ;
106 [label="X[7] <= 2.5000\ngini = 0.277777777778\nsamples = 108", shape="box"] ;
105 -> 106 ;
107 [label="X[32] <= 1.5000\ngini = 0.236831987697\nsamples = 102", shape="box"] ;
106 -> 107 ;
108 [label="X[30] <= 2.5000\ngini = 0.5\nsamples = 6", shape="box"] ;
107 -> 108 ;
109 [label="gini = 0.0000\nsamples = 1\nvalue = [ 1.  0.]", shape="box"] ;
108 -> 109 ;
110 [label="X[28] <= 2.0000\ngini = 0.48\nsamples = 5", shape="box"] ;
108 -> 110 ;
111 [label="gini = 0.0000\nsamples = 1\nvalue = [ 1.  0.]", shape="box"] ;
110 -> 111 ;
112 [label="X[34] <= 5.0000\ngini = 0.375\nsamples = 4", shape="box"] ;
110 -> 112 ;
113 [label="gini = 0.0000\nsamples = 1\nvalue = [ 0.  1.]", shape="box"] ;
112 -> 113 ;
114 [label="X[30] <= 5.0000\ngini = 0.444444444444\nsamples = 3", shape="box"] ;
112 -> 114 ;
115 [label="gini = 0.5000\nsamples = 2\nvalue = [ 1.  1.]", shape="box"] ;
114 -> 115 ;
116 [label="gini = 0.0000\nsamples = 1\nvalue = [ 0.  1.]", shape="box"] ;
114 -> 116 ;
117 [label="X[22] <= 1.5000\ngini = 0.202907986111\nsamples = 96", shape="box"] ;
107 -> 117 ;
118 [label="X[31] <= 1.5000\ngini = 0.166996961289\nsamples = 87", shape="box"] ;
117 -> 118 ;
119 [label="X[30] <= 4.0000\ngini = 0.444444444444\nsamples = 3", shape="box"] ;
118 -> 119 ;
120 [label="gini = 0.0000\nsamples = 2\nvalue = [ 2.  0.]", shape="box"] ;
119 -> 120 ;
121 [label="gini = 0.0000\nsamples = 1\nvalue = [ 0.  1.]", shape="box"] ;
119 -> 121 ;
122 [label="X[29] <= 2.5000\ngini = 0.152777777778\nsamples = 84", shape="box"] ;
118 -> 122 ;
123 [label="X[18] <= 3.5000\ngini = 0.0512465373961\nsamples = 38", shape="box"] ;
122 -> 123 ;
124 [label="gini = 0.0000\nsamples = 27\nvalue = [ 27.   0.]", shape="box"] ;
123 -> 124 ;
125 [label="X[33] <= 2.5000\ngini = 0.165289256198\nsamples = 11", shape="box"] ;
123 -> 125 ;
126 [label="X[27] <= 2.5000\ngini = 0.277777777778\nsamples = 6", shape="box"] ;
125 -> 126 ;
127 [label="gini = 0.0000\nsamples = 2\nvalue = [ 2.  0.]", shape="box"] ;
126 -> 127 ;
128 [label="gini = 0.3750\nsamples = 4\nvalue = [ 3.  1.]", shape="box"] ;
126 -> 128 ;
129 [label="gini = 0.0000\nsamples = 5\nvalue = [ 5.  0.]", shape="box"] ;
125 -> 129 ;
130 [label="X[25] <= 3.5000\ngini = 0.226843100189\nsamples = 46", shape="box"] ;
122 -> 130 ;
131 [label="X[13] <= 1.5000\ngini = 0.197530864198\nsamples = 45", shape="box"] ;
130 -> 131 ;
132 [label="X[27] <= 2.0000\ngini = 0.165289256198\nsamples = 44", shape="box"] ;
131 -> 132 ;
133 [label="X[34] <= 4.5000\ngini = 0.244897959184\nsamples = 21", shape="box"] ;
132 -> 133 ;
134 [label="X[30] <= 4.5000\ngini = 0.152777777778\nsamples = 12", shape="box"] ;
133 -> 134 ;
135 [label="X[33] <= 2.5000\ngini = 0.244897959184\nsamples = 7", shape="box"] ;
134 -> 135 ;
136 [label="gini = 0.2778\nsamples = 6\nvalue = [ 5.  1.]", shape="box"] ;
135 -> 136 ;
137 [label="gini = 0.0000\nsamples = 1\nvalue = [ 1.  0.]", shape="box"] ;
135 -> 137 ;
138 [label="gini = 0.0000\nsamples = 5\nvalue = [ 5.  0.]", shape="box"] ;
134 -> 138 ;
139 [label="X[28] <= 2.0000\ngini = 0.345679012346\nsamples = 9", shape="box"] ;
133 -> 139 ;
140 [label="gini = 0.4444\nsamples = 3\nvalue = [ 2.  1.]", shape="box"] ;
139 -> 140 ;
141 [label="X[29] <= 4.5000\ngini = 0.277777777778\nsamples = 6", shape="box"] ;
139 -> 141 ;
142 [label="gini = 0.3200\nsamples = 5\nvalue = [ 4.  1.]", shape="box"] ;
141 -> 142 ;
143 [label="gini = 0.0000\nsamples = 1\nvalue = [ 1.  0.]", shape="box"] ;
141 -> 143 ;
144 [label="X[28] <= 2.5000\ngini = 0.0831758034026\nsamples = 23", shape="box"] ;
132 -> 144 ;
145 [label="gini = 0.0000\nsamples = 16\nvalue = [ 16.   0.]", shape="box"] ;
144 -> 145 ;
146 [label="X[18] <= 3.0000\ngini = 0.244897959184\nsamples = 7", shape="box"] ;
144 -> 146 ;
147 [label="gini = 0.0000\nsamples = 5\nvalue = [ 5.  0.]", shape="box"] ;
146 -> 147 ;
148 [label="X[17] <= 2.5000\ngini = 0.5\nsamples = 2", shape="box"] ;
146 -> 148 ;
149 [label="gini = 0.0000\nsamples = 1\nvalue = [ 0.  1.]", shape="box"] ;
148 -> 149 ;
150 [label="gini = 0.0000\nsamples = 1\nvalue = [ 1.  0.]", shape="box"] ;
148 -> 150 ;
151 [label="gini = 0.0000\nsamples = 1\nvalue = [ 0.  1.]", shape="box"] ;
131 -> 151 ;
152 [label="gini = 0.0000\nsamples = 1\nvalue = [ 0.  1.]", shape="box"] ;
130 -> 152 ;
153 [label="X[26] <= 1.5000\ngini = 0.444444444444\nsamples = 9", shape="box"] ;
117 -> 153 ;
154 [label="gini = 0.0000\nsamples = 5\nvalue = [ 5.  0.]", shape="box"] ;
153 -> 154 ;
155 [label="X[30] <= 4.0000\ngini = 0.375\nsamples = 4", shape="box"] ;
153 -> 155 ;
156 [label="gini = 0.0000\nsamples = 2\nvalue = [ 0.  2.]", shape="box"] ;
155 -> 156 ;
157 [label="X[13] <= 2.0000\ngini = 0.5\nsamples = 2", shape="box"] ;
155 -> 157 ;
158 [label="gini = 0.0000\nsamples = 1\nvalue = [ 1.  0.]", shape="box"] ;
157 -> 158 ;
159 [label="gini = 0.0000\nsamples = 1\nvalue = [ 0.  1.]", shape="box"] ;
157 -> 159 ;
160 [label="X[20] <= 1.5000\ngini = 0.444444444444\nsamples = 6", shape="box"] ;
106 -> 160 ;
161 [label="gini = 0.0000\nsamples = 4\nvalue = [ 0.  4.]", shape="box"] ;
160 -> 161 ;
162 [label="gini = 0.0000\nsamples = 2\nvalue = [ 2.  0.]", shape="box"] ;
160 -> 162 ;
163 [label="X[34] <= 4.5000\ngini = 0.498269896194\nsamples = 51", shape="box"] ;
105 -> 163 ;
164 [label="X[34] <= 3.5000\ngini = 0.487901234568\nsamples = 45", shape="box"] ;
163 -> 164 ;
165 [label="X[19] <= 1.5000\ngini = 0.462809917355\nsamples = 11", shape="box"] ;
164 -> 165 ;
166 [label="X[34] <= 2.5000\ngini = 0.493827160494\nsamples = 9", shape="box"] ;
165 -> 166 ;
167 [label="X[24] <= 3.0000\ngini = 0.5\nsamples = 8", shape="box"] ;
166 -> 167 ;
168 [label="X[28] <= 2.0000\ngini = 0.489795918367\nsamples = 7", shape="box"] ;
167 -> 168 ;
169 [label="gini = 0.0000\nsamples = 2\nvalue = [ 2.  0.]", shape="box"] ;
168 -> 169 ;
170 [label="X[29] <= 4.5000\ngini = 0.48\nsamples = 5", shape="box"] ;
168 -> 170 ;
171 [label="gini = 0.4444\nsamples = 3\nvalue = [ 1.  2.]", shape="box"] ;
170 -> 171 ;
172 [label="gini = 0.5000\nsamples = 2\nvalue = [ 1.  1.]", shape="box"] ;
170 -> 172 ;
173 [label="gini = 0.0000\nsamples = 1\nvalue = [ 0.  1.]", shape="box"] ;
167 -> 173 ;
174 [label="gini = 0.0000\nsamples = 1\nvalue = [ 0.  1.]", shape="box"] ;
166 -> 174 ;
175 [label="gini = 0.0000\nsamples = 2\nvalue = [ 0.  2.]", shape="box"] ;
165 -> 175 ;
176 [label="X[11] <= 1.5000\ngini = 0.456747404844\nsamples = 34", shape="box"] ;
164 -> 176 ;
177 [label="X[14] <= 2.5000\ngini = 0.444444444444\nsamples = 33", shape="box"] ;
176 -> 177 ;
178 [label="X[13] <= 1.5000\ngini = 0.457856399584\nsamples = 31", shape="box"] ;
177 -> 178 ;
179 [label="X[26] <= 1.5000\ngini = 0.413194444444\nsamples = 24", shape="box"] ;
178 -> 179 ;
180 [label="X[27] <= 2.0000\ngini = 0.260355029586\nsamples = 13", shape="box"] ;
179 -> 180 ;
181 [label="X[32] <= 2.5000\ngini = 0.152777777778\nsamples = 12", shape="box"] ;
180 -> 181 ;
182 [label="X[17] <= 2.0000\ngini = 0.444444444444\nsamples = 3", shape="box"] ;
181 -> 182 ;
183 [label="gini = 0.0000\nsamples = 1\nvalue = [ 1.  0.]", shape="box"] ;
182 -> 183 ;
184 [label="X[22] <= 1.5000\ngini = 0.5\nsamples = 2", shape="box"] ;
182 -> 184 ;
185 [label="gini = 0.0000\nsamples = 1\nvalue = [ 1.  0.]", shape="box"] ;
184 -> 185 ;
186 [label="gini = 0.0000\nsamples = 1\nvalue = [ 0.  1.]", shape="box"] ;
184 -> 186 ;
187 [label="gini = 0.0000\nsamples = 9\nvalue = [ 9.  0.]", shape="box"] ;
181 -> 187 ;
188 [label="gini = 0.0000\nsamples = 1\nvalue = [ 0.  1.]", shape="box"] ;
180 -> 188 ;
189 [label="X[23] <= 1.5000\ngini = 0.495867768595\nsamples = 11", shape="box"] ;
179 -> 189 ;
190 [label="gini = 0.0000\nsamples = 2\nvalue = [ 0.  2.]", shape="box"] ;
189 -> 190 ;
191 [label="X[31] <= 1.5000\ngini = 0.444444444444\nsamples = 9", shape="box"] ;
189 -> 191 ;
192 [label="X[19] <= 1.5000\ngini = 0.5\nsamples = 6", shape="box"] ;
191 -> 192 ;
193 [label="gini = 0.0000\nsamples = 2\nvalue = [ 0.  2.]", shape="box"] ;
192 -> 193 ;
194 [label="X[29] <= 4.5000\ngini = 0.375\nsamples = 4", shape="box"] ;
192 -> 194 ;
195 [label="X[25] <= 2.5000\ngini = 0.5\nsamples = 2", shape="box"] ;
194 -> 195 ;
196 [label="gini = 0.0000\nsamples = 1\nvalue = [ 1.  0.]", shape="box"] ;
195 -> 196 ;
197 [label="gini = 0.0000\nsamples = 1\nvalue = [ 0.  1.]", shape="box"] ;
195 -> 197 ;
198 [label="gini = 0.0000\nsamples = 2\nvalue = [ 2.  0.]", shape="box"] ;
194 -> 198 ;
199 [label="gini = 0.0000\nsamples = 3\nvalue = [ 3.  0.]", shape="box"] ;
191 -> 199 ;
200 [label="X[15] <= 1.5000\ngini = 0.489795918367\nsamples = 7", shape="box"] ;
178 -> 200 ;
201 [label="gini = 0.0000\nsamples = 2\nvalue = [ 0.  2.]", shape="box"] ;
200 -> 201 ;
202 [label="X[26] <= 3.5000\ngini = 0.48\nsamples = 5", shape="box"] ;
200 -> 202 ;
203 [label="X[21] <= 2.5000\ngini = 0.5\nsamples = 4", shape="box"] ;
202 -> 203 ;
204 [label="X[19] <= 1.5000\ngini = 0.444444444444\nsamples = 3", shape="box"] ;
203 -> 204 ;
205 [label="gini = 0.0000\nsamples = 1\nvalue = [ 0.  1.]", shape="box"] ;
204 -> 205 ;
206 [label="gini = 0.5000\nsamples = 2\nvalue = [ 1.  1.]", shape="box"] ;
204 -> 206 ;
207 [label="gini = 0.0000\nsamples = 1\nvalue = [ 1.  0.]", shape="box"] ;
203 -> 207 ;
208 [label="gini = 0.0000\nsamples = 1\nvalue = [ 1.  0.]", shape="box"] ;
202 -> 208 ;
209 [label="gini = 0.0000\nsamples = 2\nvalue = [ 2.  0.]", shape="box"] ;
177 -> 209 ;
210 [label="gini = 0.0000\nsamples = 1\nvalue = [ 0.  1.]", shape="box"] ;
176 -> 210 ;
211 [label="X[29] <= 4.5000\ngini = 0.277777777778\nsamples = 6", shape="box"] ;
163 -> 211 ;
212 [label="X[13] <= 2.0000\ngini = 0.375\nsamples = 4", shape="box"] ;
211 -> 212 ;
213 [label="X[33] <= 4.5000\ngini = 0.444444444444\nsamples = 3", shape="box"] ;
212 -> 213 ;
214 [label="gini = 0.5000\nsamples = 2\nvalue = [ 1.  1.]", shape="box"] ;
213 -> 214 ;
215 [label="gini = 0.0000\nsamples = 1\nvalue = [ 0.  1.]", shape="box"] ;
213 -> 215 ;
216 [label="gini = 0.0000\nsamples = 1\nvalue = [ 0.  1.]", shape="box"] ;
212 -> 216 ;
217 [label="gini = 0.0000\nsamples = 2\nvalue = [ 0.  2.]", shape="box"] ;
211 -> 217 ;
218 [label="X[15] <= 1.5000\ngini = 0.437791735537\nsamples = 275", shape="box"] ;
0 -> 218 ;
219 [label="X[22] <= 3.5000\ngini = 0.497130394858\nsamples = 132", shape="box"] ;
218 -> 219 ;
220 [label="X[25] <= 2.5000\ngini = 0.36815193572\nsamples = 37", shape="box"] ;
219 -> 220 ;
221 [label="X[24] <= 1.5000\ngini = 0.244897959184\nsamples = 28", shape="box"] ;
220 -> 221 ;
222 [label="X[17] <= 3.5000\ngini = 0.5\nsamples = 4", shape="box"] ;
221 -> 222 ;
223 [label="X[18] <= 2.5000\ngini = 0.444444444444\nsamples = 3", shape="box"] ;
222 -> 223 ;
224 [label="gini = 0.0000\nsamples = 1\nvalue = [ 0.  1.]", shape="box"] ;
223 -> 224 ;
225 [label="gini = 0.5000\nsamples = 2\nvalue = [ 1.  1.]", shape="box"] ;
223 -> 225 ;
226 [label="gini = 0.0000\nsamples = 1\nvalue = [ 1.  0.]", shape="box"] ;
222 -> 226 ;
227 [label="X[17] <= 2.5000\ngini = 0.152777777778\nsamples = 24", shape="box"] ;
221 -> 227 ;
228 [label="gini = 0.0000\nsamples = 13\nvalue = [ 13.   0.]", shape="box"] ;
227 -> 228 ;
229 [label="X[30] <= 4.5000\ngini = 0.297520661157\nsamples = 11", shape="box"] ;
227 -> 229 ;
230 [label="X[31] <= 2.5000\ngini = 0.444444444444\nsamples = 6", shape="box"] ;
229 -> 230 ;
231 [label="gini = 0.0000\nsamples = 3\nvalue = [ 3.  0.]", shape="box"] ;
230 -> 231 ;
232 [label="X[34] <= 4.5000\ngini = 0.444444444444\nsamples = 3", shape="box"] ;
230 -> 232 ;
233 [label="X[30] <= 2.5000\ngini = 0.5\nsamples = 2", shape="box"] ;
232 -> 233 ;
234 [label="gini = 0.0000\nsamples = 1\nvalue = [ 1.  0.]", shape="box"] ;
233 -> 234 ;
235 [label="gini = 0.0000\nsamples = 1\nvalue = [ 0.  1.]", shape="box"] ;
233 -> 235 ;
236 [label="gini = 0.0000\nsamples = 1\nvalue = [ 0.  1.]", shape="box"] ;
232 -> 236 ;
237 [label="gini = 0.0000\nsamples = 5\nvalue = [ 5.  0.]", shape="box"] ;
229 -> 237 ;
238 [label="X[18] <= 3.5000\ngini = 0.493827160494\nsamples = 9", shape="box"] ;
220 -> 238 ;
239 [label="X[34] <= 3.0000\ngini = 0.489795918367\nsamples = 7", shape="box"] ;
238 -> 239 ;
240 [label="gini = 0.0000\nsamples = 2\nvalue = [ 2.  0.]", shape="box"] ;
239 -> 240 ;
241 [label="X[30] <= 2.5000\ngini = 0.48\nsamples = 5", shape="box"] ;
239 -> 241 ;
242 [label="gini = 0.0000\nsamples = 2\nvalue = [ 0.  2.]", shape="box"] ;
241 -> 242 ;
243 [label="X[24] <= 3.0000\ngini = 0.444444444444\nsamples = 3", shape="box"] ;
241 -> 243 ;
244 [label="gini = 0.0000\nsamples = 2\nvalue = [ 2.  0.]", shape="box"] ;
243 -> 244 ;
245 [label="gini = 0.0000\nsamples = 1\nvalue = [ 0.  1.]", shape="box"] ;
243 -> 245 ;
246 [label="gini = 0.0000\nsamples = 2\nvalue = [ 0.  2.]", shape="box"] ;
238 -> 246 ;
247 [label="X[21] <= 2.5000\ngini = 0.495512465374\nsamples = 95", shape="box"] ;
219 -> 247 ;
248 [label="X[1] <= 1.5000\ngini = 0.244897959184\nsamples = 14", shape="box"] ;
247 -> 248 ;
249 [label="X[16] <= 1.5000\ngini = 0.14201183432\nsamples = 13", shape="box"] ;
248 -> 249 ;
250 [label="gini = 0.0000\nsamples = 1\nvalue = [ 1.  0.]", shape="box"] ;
249 -> 250 ;
251 [label="gini = 0.0000\nsamples = 12\nvalue = [  0.  12.]", shape="box"] ;
249 -> 251 ;
252 [label="gini = 0.0000\nsamples = 1\nvalue = [ 1.  0.]", shape="box"] ;
248 -> 252 ;
253 [label="X[33] <= 4.5000\ngini = 0.499923792105\nsamples = 81", shape="box"] ;
247 -> 253 ;
254 [label="X[25] <= 1.5000\ngini = 0.497891718671\nsamples = 77", shape="box"] ;
253 -> 254 ;
255 [label="X[13] <= 1.5000\ngini = 0.4712\nsamples = 50", shape="box"] ;
254 -> 255 ;
256 [label="X[19] <= 2.0000\ngini = 0.464806330696\nsamples = 49", shape="box"] ;
255 -> 256 ;
257 [label="gini = 0.0000\nsamples = 1\nvalue = [ 0.  1.]", shape="box"] ;
256 -> 257 ;
258 [label="X[18] <= 4.5000\ngini = 0.457465277778\nsamples = 48", shape="box"] ;
256 -> 258 ;
259 [label="X[29] <= 1.5000\ngini = 0.424382716049\nsamples = 36", shape="box"] ;
258 -> 259 ;
260 [label="X[18] <= 3.5000\ngini = 0.4921875\nsamples = 16", shape="box"] ;
259 -> 260 ;
261 [label="X[30] <= 1.5000\ngini = 0.444444444444\nsamples = 6", shape="box"] ;
260 -> 261 ;
262 [label="X[18] <= 2.0000\ngini = 0.444444444444\nsamples = 3", shape="box"] ;
261 -> 262 ;
263 [label="gini = 0.0000\nsamples = 1\nvalue = [ 1.  0.]", shape="box"] ;
262 -> 263 ;
264 [label="gini = 0.5000\nsamples = 2\nvalue = [ 1.  1.]", shape="box"] ;
262 -> 264 ;
265 [label="gini = 0.0000\nsamples = 3\nvalue = [ 0.  3.]", shape="box"] ;
261 -> 265 ;
266 [label="X[32] <= 3.0000\ngini = 0.42\nsamples = 10", shape="box"] ;
260 -> 266 ;
267 [label="X[27] <= 2.5000\ngini = 0.32\nsamples = 5", shape="box"] ;
266 -> 267 ;
268 [label="gini = 0.0000\nsamples = 4\nvalue = [ 4.  0.]", shape="box"] ;
267 -> 268 ;
269 [label="gini = 0.0000\nsamples = 1\nvalue = [ 0.  1.]", shape="box"] ;
267 -> 269 ;
270 [label="X[27] <= 2.5000\ngini = 0.48\nsamples = 5", shape="box"] ;
266 -> 270 ;
271 [label="X[22] <= 4.5000\ngini = 0.444444444444\nsamples = 3", shape="box"] ;
270 -> 271 ;
272 [label="gini = 0.0000\nsamples = 1\nvalue = [ 0.  1.]", shape="box"] ;
271 -> 272 ;
273 [label="gini = 0.5000\nsamples = 2\nvalue = [ 1.  1.]", shape="box"] ;
271 -> 273 ;
274 [label="gini = 0.0000\nsamples = 2\nvalue = [ 2.  0.]", shape="box"] ;
270 -> 274 ;
275 [label="X[30] <= 4.5000\ngini = 0.32\nsamples = 20", shape="box"] ;
259 -> 275 ;
276 [label="X[34] <= 3.5000\ngini = 0.265927977839\nsamples = 19", shape="box"] ;
275 -> 276 ;
277 [label="X[33] <= 1.5000\ngini = 0.396694214876\nsamples = 11", shape="box"] ;
276 -> 277 ;
278 [label="X[21] <= 4.5000\ngini = 0.244897959184\nsamples = 7", shape="box"] ;
277 -> 278 ;
279 [label="gini = 0.0000\nsamples = 5\nvalue = [ 5.  0.]", shape="box"] ;
278 -> 279 ;
280 [label="X[27] <= 2.5000\ngini = 0.5\nsamples = 2", shape="box"] ;
278 -> 280 ;
281 [label="gini = 0.0000\nsamples = 1\nvalue = [ 0.  1.]", shape="box"] ;
280 -> 281 ;
282 [label="gini = 0.0000\nsamples = 1\nvalue = [ 1.  0.]", shape="box"] ;
280 -> 282 ;
283 [label="X[18] <= 2.5000\ngini = 0.5\nsamples = 4", shape="box"] ;
277 -> 283 ;
284 [label="gini = 0.0000\nsamples = 1\nvalue = [ 0.  1.]", shape="box"] ;
283 -> 284 ;
285 [label="X[30] <= 2.5000\ngini = 0.444444444444\nsamples = 3", shape="box"] ;
283 -> 285 ;
286 [label="gini = 0.5000\nsamples = 2\nvalue = [ 1.  1.]", shape="box"] ;
285 -> 286 ;
287 [label="gini = 0.0000\nsamples = 1\nvalue = [ 1.  0.]", shape="box"] ;
285 -> 287 ;
288 [label="gini = 0.0000\nsamples = 8\nvalue = [ 8.  0.]", shape="box"] ;
276 -> 288 ;
289 [label="gini = 0.0000\nsamples = 1\nvalue = [ 0.  1.]", shape="box"] ;
275 -> 289 ;
290 [label="X[26] <= 1.5000\ngini = 0.5\nsamples = 12", shape="box"] ;
258 -> 290 ;
291 [label="X[27] <= 2.0000\ngini = 0.495867768595\nsamples = 11", shape="box"] ;
290 -> 291 ;
292 [label="gini = 0.4444\nsamples = 3\nvalue = [ 1.  2.]", shape="box"] ;
291 -> 292 ;
293 [label="X[16] <= 2.5000\ngini = 0.46875\nsamples = 8", shape="box"] ;
291 -> 293 ;
294 [label="X[33] <= 1.5000\ngini = 0.444444444444\nsamples = 3", shape="box"] ;
293 -> 294 ;
295 [label="gini = 0.0000\nsamples = 1\nvalue = [ 0.  1.]", shape="box"] ;
294 -> 295 ;
296 [label="X[32] <= 3.5000\ngini = 0.5\nsamples = 2", shape="box"] ;
294 -> 296 ;
297 [label="gini = 0.0000\nsamples = 1\nvalue = [ 1.  0.]", shape="box"] ;
296 -> 297 ;
298 [label="gini = 0.0000\nsamples = 1\nvalue = [ 0.  1.]", shape="box"] ;
296 -> 298 ;
299 [label="X[32] <= 3.5000\ngini = 0.32\nsamples = 5", shape="box"] ;
293 -> 299 ;
300 [label="X[34] <= 1.5000\ngini = 0.5\nsamples = 2", shape="box"] ;
299 -> 300 ;
301 [label="gini = 0.0000\nsamples = 1\nvalue = [ 1.  0.]", shape="box"] ;
300 -> 301 ;
302 [label="gini = 0.0000\nsamples = 1\nvalue = [ 0.  1.]", shape="box"] ;
300 -> 302 ;
303 [label="gini = 0.0000\nsamples = 3\nvalue = [ 3.  0.]", shape="box"] ;
299 -> 303 ;
304 [label="gini = 0.0000\nsamples = 1\nvalue = [ 0.  1.]", shape="box"] ;
290 -> 304 ;
305 [label="gini = 0.0000\nsamples = 1\nvalue = [ 0.  1.]", shape="box"] ;
255 -> 305 ;
306 [label="X[32] <= 3.5000\ngini = 0.466392318244\nsamples = 27", shape="box"] ;
254 -> 306 ;
307 [label="X[29] <= 4.5000\ngini = 0.297520661157\nsamples = 11", shape="box"] ;
306 -> 307 ;
308 [label="X[17] <= 3.5000\ngini = 0.18\nsamples = 10", shape="box"] ;
307 -> 308 ;
309 [label="gini = 0.0000\nsamples = 5\nvalue = [ 0.  5.]", shape="box"] ;
308 -> 309 ;
310 [label="X[26] <= 2.5000\ngini = 0.32\nsamples = 5", shape="box"] ;
308 -> 310 ;
311 [label="X[32] <= 2.5000\ngini = 0.444444444444\nsamples = 3", shape="box"] ;
310 -> 311 ;
312 [label="X[23] <= 1.5000\ngini = 0.5\nsamples = 2", shape="box"] ;
311 -> 312 ;
313 [label="gini = 0.0000\nsamples = 1\nvalue = [ 0.  1.]", shape="box"] ;
312 -> 313 ;
314 [label="gini = 0.0000\nsamples = 1\nvalue = [ 1.  0.]", shape="box"] ;
312 -> 314 ;
315 [label="gini = 0.0000\nsamples = 1\nvalue = [ 0.  1.]", shape="box"] ;
311 -> 315 ;
316 [label="gini = 0.0000\nsamples = 2\nvalue = [ 0.  2.]", shape="box"] ;
310 -> 316 ;
317 [label="gini = 0.0000\nsamples = 1\nvalue = [ 1.  0.]", shape="box"] ;
307 -> 317 ;
318 [label="X[33] <= 3.5000\ngini = 0.5\nsamples = 16", shape="box"] ;
306 -> 318 ;
319 [label="X[21] <= 4.5000\ngini = 0.277777777778\nsamples = 6", shape="box"] ;
318 -> 319 ;
320 [label="gini = 0.0000\nsamples = 5\nvalue = [ 5.  0.]", shape="box"] ;
319 -> 320 ;
321 [label="gini = 0.0000\nsamples = 1\nvalue = [ 0.  1.]", shape="box"] ;
319 -> 321 ;
322 [label="X[27] <= 2.5000\ngini = 0.42\nsamples = 10", shape="box"] ;
318 -> 322 ;
323 [label="gini = 0.0000\nsamples = 4\nvalue = [ 0.  4.]", shape="box"] ;
322 -> 323 ;
324 [label="X[16] <= 2.5000\ngini = 0.5\nsamples = 6", shape="box"] ;
322 -> 324 ;
325 [label="X[17] <= 2.5000\ngini = 0.375\nsamples = 4", shape="box"] ;
324 -> 325 ;
326 [label="X[23] <= 1.5000\ngini = 0.5\nsamples = 2", shape="box"] ;
325 -> 326 ;
327 [label="gini = 0.0000\nsamples = 1\nvalue = [ 0.  1.]", shape="box"] ;
326 -> 327 ;
328 [label="gini = 0.0000\nsamples = 1\nvalue = [ 1.  0.]", shape="box"] ;
326 -> 328 ;
329 [label="gini = 0.0000\nsamples = 2\nvalue = [ 0.  2.]", shape="box"] ;
325 -> 329 ;
330 [label="gini = 0.0000\nsamples = 2\nvalue = [ 2.  0.]", shape="box"] ;
324 -> 330 ;
331 [label="gini = 0.0000\nsamples = 4\nvalue = [ 0.  4.]", shape="box"] ;
253 -> 331 ;
332 [label="X[14] <= 2.5000\ngini = 0.220059660619\nsamples = 143", shape="box"] ;
218 -> 332 ;
333 [label="X[12] <= 1.5000\ngini = 0.345679012346\nsamples = 63", shape="box"] ;
332 -> 333 ;
334 [label="X[2] <= 1.5000\ngini = 0.32\nsamples = 60", shape="box"] ;
333 -> 334 ;
335 [label="X[34] <= 3.5000\ngini = 0.289319790705\nsamples = 57", shape="box"] ;
334 -> 335 ;
336 [label="X[14] <= 1.5000\ngini = 0.459183673469\nsamples = 14", shape="box"] ;
335 -> 336 ;
337 [label="X[24] <= 2.5000\ngini = 0.5\nsamples = 10", shape="box"] ;
336 -> 337 ;
338 [label="X[29] <= 4.5000\ngini = 0.46875\nsamples = 8", shape="box"] ;
337 -> 338 ;
339 [label="X[21] <= 4.5000\ngini = 0.408163265306\nsamples = 7", shape="box"] ;
338 -> 339 ;
340 [label="X[30] <= 2.5000\ngini = 0.277777777778\nsamples = 6", shape="box"] ;
339 -> 340 ;
341 [label="X[30] <= 1.5000\ngini = 0.5\nsamples = 2", shape="box"] ;
340 -> 341 ;
342 [label="gini = 0.0000\nsamples = 1\nvalue = [ 0.  1.]", shape="box"] ;
341 -> 342 ;
343 [label="gini = 0.0000\nsamples = 1\nvalue = [ 1.  0.]", shape="box"] ;
341 -> 343 ;
344 [label="gini = 0.0000\nsamples = 4\nvalue = [ 0.  4.]", shape="box"] ;
340 -> 344 ;
345 [label="gini = 0.0000\nsamples = 1\nvalue = [ 1.  0.]", shape="box"] ;
339 -> 345 ;
346 [label="gini = 0.0000\nsamples = 1\nvalue = [ 1.  0.]", shape="box"] ;
338 -> 346 ;
347 [label="gini = 0.0000\nsamples = 2\nvalue = [ 2.  0.]", shape="box"] ;
337 -> 347 ;
348 [label="gini = 0.0000\nsamples = 4\nvalue = [ 0.  4.]", shape="box"] ;
336 -> 348 ;
349 [label="X[24] <= 2.5000\ngini = 0.205516495403\nsamples = 43", shape="box"] ;
335 -> 349 ;
350 [label="X[29] <= 2.5000\ngini = 0.310650887574\nsamples = 26", shape="box"] ;
349 -> 350 ;
351 [label="X[32] <= 3.5000\ngini = 0.14201183432\nsamples = 13", shape="box"] ;
350 -> 351 ;
352 [label="X[31] <= 1.5000\ngini = 0.5\nsamples = 2", shape="box"] ;
351 -> 352 ;
353 [label="gini = 0.0000\nsamples = 1\nvalue = [ 0.  1.]", shape="box"] ;
352 -> 353 ;
354 [label="gini = 0.0000\nsamples = 1\nvalue = [ 1.  0.]", shape="box"] ;
352 -> 354 ;
355 [label="gini = 0.0000\nsamples = 11\nvalue = [  0.  11.]", shape="box"] ;
351 -> 355 ;
356 [label="X[26] <= 3.5000\ngini = 0.426035502959\nsamples = 13", shape="box"] ;
350 -> 356 ;
357 [label="X[28] <= 2.0000\ngini = 0.375\nsamples = 12", shape="box"] ;
356 -> 357 ;
358 [label="X[30] <= 3.0000\ngini = 0.444444444444\nsamples = 9", shape="box"] ;
357 -> 358 ;
359 [label="gini = 0.0000\nsamples = 1\nvalue = [ 1.  0.]", shape="box"] ;
358 -> 359 ;
360 [label="X[22] <= 4.0000\ngini = 0.375\nsamples = 8", shape="box"] ;
358 -> 360 ;
361 [label="gini = 0.0000\nsamples = 1\nvalue = [ 0.  1.]", shape="box"] ;
360 -> 361 ;
362 [label="X[19] <= 2.0000\ngini = 0.408163265306\nsamples = 7", shape="box"] ;
360 -> 362 ;
363 [label="gini = 0.0000\nsamples = 1\nvalue = [ 0.  1.]", shape="box"] ;
362 -> 363 ;
364 [label="X[27] <= 2.0000\ngini = 0.444444444444\nsamples = 6", shape="box"] ;
362 -> 364 ;
365 [label="X[33] <= 3.5000\ngini = 0.5\nsamples = 2", shape="box"] ;
364 -> 365 ;
366 [label="gini = 0.0000\nsamples = 1\nvalue = [ 0.  1.]", shape="box"] ;
365 -> 366 ;
367 [label="gini = 0.0000\nsamples = 1\nvalue = [ 1.  0.]", shape="box"] ;
365 -> 367 ;
368 [label="X[33] <= 3.5000\ngini = 0.375\nsamples = 4", shape="box"] ;
364 -> 368 ;
369 [label="gini = 0.5000\nsamples = 2\nvalue = [ 1.  1.]", shape="box"] ;
368 -> 369 ;
370 [label="gini = 0.0000\nsamples = 2\nvalue = [ 0.  2.]", shape="box"] ;
368 -> 370 ;
371 [label="gini = 0.0000\nsamples = 3\nvalue = [ 0.  3.]", shape="box"] ;
357 -> 371 ;
372 [label="gini = 0.0000\nsamples = 1\nvalue = [ 1.  0.]", shape="box"] ;
356 -> 372 ;
373 [label="gini = 0.0000\nsamples = 17\nvalue = [  0.  17.]", shape="box"] ;
349 -> 373 ;
374 [label="X[17] <= 3.5000\ngini = 0.444444444444\nsamples = 3", shape="box"] ;
334 -> 374 ;
375 [label="gini = 0.0000\nsamples = 2\nvalue = [ 2.  0.]", shape="box"] ;
374 -> 375 ;
376 [label="gini = 0.0000\nsamples = 1\nvalue = [ 0.  1.]", shape="box"] ;
374 -> 376 ;
377 [label="X[33] <= 2.0000\ngini = 0.444444444444\nsamples = 3", shape="box"] ;
333 -> 377 ;
378 [label="gini = 0.0000\nsamples = 1\nvalue = [ 0.  1.]", shape="box"] ;
377 -> 378 ;
379 [label="gini = 0.0000\nsamples = 2\nvalue = [ 2.  0.]", shape="box"] ;
377 -> 379 ;
380 [label="X[30] <= 2.5000\ngini = 0.095\nsamples = 80", shape="box"] ;
332 -> 380 ;
381 [label="X[23] <= 1.5000\ngini = 0.174817898023\nsamples = 31", shape="box"] ;
380 -> 381 ;
382 [label="gini = 0.0000\nsamples = 13\nvalue = [  0.  13.]", shape="box"] ;
381 -> 382 ;
383 [label="X[24] <= 2.0000\ngini = 0.277777777778\nsamples = 18", shape="box"] ;
381 -> 383 ;
384 [label="X[28] <= 1.5000\ngini = 0.5\nsamples = 2", shape="box"] ;
383 -> 384 ;
385 [label="gini = 0.0000\nsamples = 1\nvalue = [ 1.  0.]", shape="box"] ;
384 -> 385 ;
386 [label="gini = 0.0000\nsamples = 1\nvalue = [ 0.  1.]", shape="box"] ;
384 -> 386 ;
387 [label="X[27] <= 2.5000\ngini = 0.21875\nsamples = 16", shape="box"] ;
383 -> 387 ;
388 [label="X[24] <= 3.5000\ngini = 0.375\nsamples = 8", shape="box"] ;
387 -> 388 ;
389 [label="gini = 0.0000\nsamples = 1\nvalue = [ 1.  0.]", shape="box"] ;
388 -> 389 ;
390 [label="X[26] <= 5.5000\ngini = 0.244897959184\nsamples = 7", shape="box"] ;
388 -> 390 ;
391 [label="gini = 0.0000\nsamples = 5\nvalue = [ 0.  5.]", shape="box"] ;
390 -> 391 ;
392 [label="X[6] <= 2.5000\ngini = 0.5\nsamples = 2", shape="box"] ;
390 -> 392 ;
393 [label="gini = 0.0000\nsamples = 1\nvalue = [ 1.  0.]", shape="box"] ;
392 -> 393 ;
394 [label="gini = 0.0000\nsamples = 1\nvalue = [ 0.  1.]", shape="box"] ;
392 -> 394 ;
395 [label="gini = 0.0000\nsamples = 8\nvalue = [ 0.  8.]", shape="box"] ;
387 -> 395 ;
396 [label="X[22] <= 4.0000\ngini = 0.0399833402749\nsamples = 49", shape="box"] ;
380 -> 396 ;
397 [label="X[27] <= 2.5000\ngini = 0.375\nsamples = 4", shape="box"] ;
396 -> 397 ;
398 [label="gini = 0.0000\nsamples = 3\nvalue = [ 0.  3.]", shape="box"] ;
397 -> 398 ;
399 [label="gini = 0.0000\nsamples = 1\nvalue = [ 1.  0.]", shape="box"] ;
397 -> 399 ;
400 [label="gini = 0.0000\nsamples = 45\nvalue = [  0.  45.]", shape="box"] ;
396 -> 400 ;
}